{"version": "0.5.4", "architecture": "WaveNet", "config": {"layers": [{"input_size": 1, "condition_size": 1, "channels": 3, "bottleneck": 3, "kernel_sizes": [6, 6, 6, 6, 6, 6, 6, 6, 6, 6, 6, 6, 6, 6, 15, 15, 6, 6, 6, 6, 6, 6, 6], "dilations": [1, 3, 7, 17, 41, 101, 239, 1, 3, 7, 17, 41, 101, 239, 1, 13, 1, 3, 7, 17, 41, 101, 239], "activation": [{"type": "LeakyReLU", "negative_slope": 0.01}, {"type": "LeakyReLU", "negative_slope": 0.01}, {"type": "LeakyReLU", "negative_slope": 0.01}, {"type": "LeakyReLU", "negative_slope": 0.01}, {"type": "LeakyReLU", "negative_slope": 0.01}, {"type": "LeakyReLU", "negative_slope": 0.01}, {"type": "LeakyReLU", "negative_slope": 0.01}, {"type": "LeakyReLU", "negative_slope": 0.01}, {"type": "LeakyReLU", "negative_slope": 0.01}, {"type": "LeakyReLU", "negative_slope": 0.01}, {"type": "LeakyReLU", "negative_slope": 0.01}, {"type": "LeakyReLU", "negative_slope": 0.01}, {"type": "LeakyReLU", "negative_slope": 0.01}, {"type": "LeakyReLU", "negative_slope": 0.01}, {"type": "LeakyReLU", "negative_slope": 0.01}, {"type": "LeakyReLU", "negative_slope": 0.01}, {"type": "LeakyReLU", "negative_slope": 0.01}, {"type": "LeakyReLU", "negative_slope": 0.01}, {"type": "LeakyReLU", "negative_slope": 0.01}, {"type": "LeakyReLU", "negative_slope": 0.01}, {"type": "LeakyReLU", "negative_slope": 0.01}, {"type": "LeakyReLU", "negative_slope": 0.01}, {"type": "LeakyReLU", "negative_slope": 0.01}], "gating_mode": ["none", "none", "none", "none", "none", "none", "none", "none", "none", "none", "none", "none", "none", "none", "none", "none", "none", "none", "none", "none", "none", "none", "none"], "head1x1": {"active": false, "out_channels": 1, "groups": 1}, "layer1x1": {"active": true, "groups": 1}, "head": {"out_channels": 1, "kernel_size": 16, "bias": true}}], "head": null, "head_scale": 0.01}, "weights": [0.0439821220934391, -0.15010876953601837, 0.10831829905509949, 0.13575881719589233, -0.2816076874732971, -0.1879534274339676, 0.018452173098921776, -0.045645687729120255, -0.002425038255751133, -0.12312628328800201, 0.12693016231060028, 0.11226459592580795, 0.009530710056424141, 0.1627032607793808, 0.06747916340827942, -0.12402818351984024, 0.0532245896756649, -0.1384027749300003, 0.12679338455200195, -0.007206184323877096, -0.02668258361518383, -0.09828371554613113, 0.17645864188671112, -0.022304410114884377, -0.06182379648089409, -0.05082609876990318, 0.07683221250772476, 0.05274730548262596, 0.059572819620370865, 0.06218365579843521, 0.30912020802497864, -0.05866095423698425, -0.073935866355896, -0.11745797842741013, 0.08890897035598755, 0.16295310854911804, -0.016446899622678757, -0.12126614153385162, -0.11900361627340317, 0.09390497952699661, 0.10727950185537338, 0.07839756458997726, -0.09605805575847626, 0.03350960090756416, 0.01684214547276497, 0.03156498074531555, 0.1257799118757248, 0.03227323666214943, 0.09799273312091827, 0.009754198603332043, 0.041730791330337524, 0.09111860394477844, -0.2103223204612732, -0.04614056646823883, -0.06789244711399078, -0.09221407771110535, -0.03971336409449577, 0.014949413016438484, -0.008658311329782009, 0.009682783856987953, -0.24290132522583008, -0.048336490988731384, 0.023491380736231804, 0.08461390435695648, 0.10265671461820602, 0.11450981348752975, -0.050334129482507706, -0.06673473119735718, 0.1238381490111351, -0.02761240117251873, -0.18412946164608002, -0.1635759174823761, -0.009194523096084595, 0.004971607588231564, 0.0014242574106901884, 0.09966297447681427, -0.06166860833764076, 0.022883232682943344, 0.0902961939573288, -0.044650327414274216, 0.0659298300743103, -0.09554077684879303, -0.0524023100733757, -0.05509911850094795, -0.17260459065437317, 0.07028841972351074, -0.06775239109992981, 0.0018033706583082676, 0.06938980519771576, 0.06445122510194778, 0.09604007005691528, -0.014215155504643917, -0.061097849160432816, -0.011506333015859127, -0.2435457408428192, -0.2088726907968521, -0.19091524183750153, -0.14394018054008484, 0.0577024407684803, -0.13069464266300201, -0.05458306148648262, 0.18752744793891907, -0.051422275602817535, 0.10645120590925217, -0.13475610315799713, -0.02965235710144043, -0.13712386786937714, -0.04893520846962929, 0.12128803133964539, -0.2493172287940979, 0.06270365417003632, 0.03431417793035507, -0.08575815707445145, -0.20872047543525696, 0.01041099801659584, -0.07642568647861481, 0.03358391672372818, 0.0031540854834020138, 0.23119686543941498, -0.03454801067709923, -0.14772914350032806, 0.025876209139823914, 0.0317537859082222, 0.19618183374404907, 0.12053792923688889, 0.05150990188121796, 0.21120958030223846, -0.1715831607580185, -0.09234017878770828, -0.009265759028494358, -0.0038980981335043907, -0.013766861520707607, 0.09167614579200745, -0.03207508474588394, -0.2122925966978073, -0.14658620953559875, 0.04525182768702507, 0.1209731474518776, 0.28820326924324036, 0.42057982087135315, 0.05981484800577164, -0.14282752573490143, -0.3077343702316284, 0.0386408194899559, -0.00812941137701273, -0.004153572488576174, -0.006120968144387007, -0.02032141387462616, 0.15386098623275757, 0.022668007761240005, -0.022896965965628624, -0.14948374032974243, -0.24171966314315796, -0.07019250094890594, -0.00776284234598279, 0.25517868995666504, 0.018803507089614868, 0.14184622466564178, -0.07206711173057556, -0.1710319072008133, -0.13930261135101318, -0.10467736423015594, 0.30721813440322876, -0.11855695396661758, 0.12102549523115158, -0.1303263157606125, 0.13446098566055298, 0.05556288734078407, -0.02260873280465603, -0.0058835637755692005, -0.09451046586036682, 0.06438497453927994, -0.06567120552062988, -0.1769009530544281, -0.18445439636707306, 0.02491091936826706, 0.22792218625545502, 0.02309280075132847, -0.01712396740913391, 0.04125544801354408, 0.1885051131248474, 0.0316651351749897, -0.059312235563993454, 0.15967902541160583, 0.061885662376880646, 0.22166728973388672, 0.026447612792253494, -0.17673687636852264, -0.19747677445411682, 0.2382909208536148, 0.2487897127866745, -0.025911366567015648, -0.055308327078819275, 0.21094131469726562, -0.15978828072547913, -0.12914271652698517, 0.09285622090101242, -0.05695634335279465, -0.0007392778061330318, -0.023590950295329094, 0.048724688589572906, 0.014074818231165409, 0.0009058490977622569, 0.006439387798309326, -0.2959168553352356, -0.007031895685940981, -0.12170980870723724, -0.1759205162525177, -0.1267503798007965, -0.04822656512260437, 0.13219913840293884, -0.19144830107688904, 0.004421275109052658, -0.06988383829593658, -0.04729553684592247, 0.14473561942577362, 0.005381154362112284, 0.013373981229960918, -0.0015450568171218038, -0.10045066475868225, -0.03231123834848404, 0.035001397132873535, 0.025486169382929802, -0.15651793777942657, 0.013061074540019035, 0.032941922545433044, 0.3633660674095154, 0.2708991765975952, -0.12315507233142853, -0.04148021712899208, -0.21122965216636658, -0.08526121079921722, 0.04555365815758705, 0.174049973487854, -0.10523419082164764, -0.09441790729761124, -0.30993446707725525, -0.023478804156184196, -0.15334631502628326, -0.07641799747943878, -0.12656395137310028, -0.013605628162622452, -0.2537062466144562, -0.21174974739551544, 0.30733034014701843, -0.1858234405517578, -0.15830735862255096, 0.26513561606407166, 0.4193103313446045, -0.1691010743379593, -0.05315215885639191, 0.049299295991659164, 0.24951601028442383, -0.1424405425786972, -0.0354028083384037, 0.11219901591539383, 0.06275307387113571, -0.05429345369338989, -0.019315680488944054, -0.19844911992549896, -0.03437741845846176, -0.0384497232735157, 0.03351083770394325, -0.08015458285808563, 0.0680607259273529, 0.14617294073104858, 0.022434290498495102, 0.05077166482806206, 0.00767231360077858, 1.2181093552499078e-05, -0.10414793342351913, 0.04568201303482056, -0.014042111113667488, 0.020931683480739594, 0.015733549371361732, 0.0038584654685109854, -0.11013782024383545, -0.16056276857852936, 0.17192667722702026, 0.03792458400130272, 0.06930273026227951, -0.251809298992157, 0.13386420905590057, 0.06558992713689804, -0.160276859998703, -0.06805874407291412, 0.03806430101394653, 0.0075729298405349255, -0.0029217118863016367, -0.001034882734529674, -0.0025197737850248814, 0.022020502015948296, 0.21239157021045685, -0.3704652488231659, -0.03418638929724693, 0.025477373972535133, 0.04272305220365524, -0.05368124693632126, -0.25356096029281616, 0.04734206944704056, 0.24932153522968292, -0.22139382362365723, 0.12468283623456955, -0.04741853103041649, -0.00885140709578991, -0.15197281539440155, -0.04827459156513214, 0.18764527142047882, 0.08409903943538666, 0.25003764033317566, 0.16994476318359375, 0.06337670236825943, 0.2517152726650238, 0.0633632019162178, 0.11950980126857758, -0.04280633106827736, 0.009605061262845993, -0.10066445916891098, 0.1428341418504715, -0.1700734794139862, 0.1129225417971611, -0.02751811034977436, 0.16905495524406433, 0.10837860405445099, 0.2627876400947571, 0.10547824203968048, -0.2269044667482376, -0.009663858450949192, -0.16916467249393463, -0.07480724900960922, 0.21812704205513, 0.09202007949352264, -0.1008819192647934, -0.1463174968957901, 0.004731687717139721, -0.17559532821178436, -0.09687075763940811, 0.04503468796610832, 0.16675493121147156, 0.08786714822053909, -0.33071914315223694, 0.04393155500292778, 0.010397151112556458, 0.059739917516708374, 0.2332797795534134, -0.020632382482290268, -0.005911034066230059, 0.005909063387662172, -0.22828349471092224, 0.21303489804267883, 0.05316769704222679, 0.12219387292861938, -0.08240862190723419, 0.11745667457580566, 0.1542205810546875, 0.03361304849386215, 0.0338328555226326, 0.039020687341690063, -0.12461315840482712, -0.02129393070936203, -0.0015252253506332636, 0.0038339386228471994, 0.009998242370784283, -0.152786523103714, -0.018043499439954758, 0.21382969617843628, -0.10732771456241608, -0.11868156492710114, 0.02920038439333439, 0.12187650054693222, 0.001649209065362811, 0.1918189376592636, 0.12366756051778793, 0.12150625884532928, 0.07997982949018478, 0.3359677791595459, -0.02961253933608532, -0.28918352723121643, 0.23155416548252106, -0.06606322526931763, 0.015571201220154762, 0.18901735544204712, -0.23126624524593353, -0.1806597113609314, -0.23112456500530243, -0.11462370306253433, 0.06345608085393906, 0.07565999776124954, 0.03987674415111542, -0.20391519367694855, -0.33343470096588135, 0.007845263928174973, -0.06809500604867935, 0.06630662828683853, 0.10131827741861343, 0.01995343156158924, 0.10971575975418091, 0.03308381140232086, 0.07650825381278992, -0.10171082615852356, -0.025924675166606903, 0.028402183204889297, 0.11843308061361313, -0.05683164298534393, 0.07522401213645935, -0.0383705236017704, -0.016965750604867935, 0.11973076313734055, -0.2876734733581543, -0.1871296614408493, -0.2139350324869156, -0.33682847023010254, -0.09789904206991196, 0.10817146301269531, -0.04111947491765022, 0.02854853868484497, 0.15721499919891357, 0.013276861049234867, -0.0006913793622516096, 0.013535859063267708, 0.013297338038682938, -0.120868019759655, -0.08579429984092712, -0.21369703114032745, -0.12819108366966248, -0.051675256341695786, 0.11598750948905945, 0.24837173521518707, -0.19950072467327118, 0.056699760258197784, -0.1501895785331726, 0.06851661950349808, -0.0013108665589243174, -0.018309058621525764, 0.009282969869673252, -0.08732432872056961, -0.07706186175346375, -0.15440545976161957, -0.09443765878677368, 0.061760663986206055, -0.027315067127346992, 0.04743827506899834, 0.05223891884088516, 0.19062109291553497, -0.04947691783308983, -0.21316605806350708, 0.15404029190540314, -0.047846198081970215, 0.1608775556087494, 0.055335719138383865, -0.01892807148396969, 0.05034146457910538, 0.2816044092178345, 0.2997863292694092, 0.010014303959906101, 0.02312152087688446, 0.15534189343452454, -0.12206065654754639, 0.04807456582784653, -0.0037329804617911577, 0.04530874639749527, -0.12028642743825912, -0.2294343113899231, -0.2992093861103058, -0.16128049790859222, -0.06620407849550247, -0.04231856018304825, 0.27961522340774536, 0.15963639318943024, -0.1388658881187439, 0.05018739029765129, -0.05875668302178383, -0.041044384241104126, 0.02674945257604122, 0.08936965465545654, -0.048967745155096054, 0.15355373919010162, -0.16482459008693695, 0.0009149648249149323, 0.3749419152736664, 0.03219878673553467, 0.20686669647693634, 0.013209800235927105, 0.08382795006036758, -0.008195947855710983, -0.024596216157078743, -0.11250859498977661, 0.06210865080356598, -0.1229088082909584, 0.006655852310359478, 0.010852869600057602, 0.003665314055979252, -0.0413164459168911, 0.06552428752183914, -0.04455311968922615, 0.13503459095954895, -0.26434069871902466, -0.04844075068831444, -0.2873489558696747, -0.2157934457063675, 0.1968565583229065, 0.12920881807804108, -0.10384802520275116, -0.21686770021915436, -0.029645288363099098, -0.005434955004602671, 0.024204149842262268, 0.06277013570070267, -0.08076730370521545, 0.06712854653596878, -0.22530493140220642, -0.04291493073105812, 0.014358336105942726, -0.012427558191120625, 0.11414302885532379, 0.04974525421857834, 0.09646455198526382, -0.0993579775094986, 0.12958848476409912, 0.23511679470539093, -0.14002902805805206, -0.1281278282403946, 0.19280385971069336, -0.027618125081062317, 0.20262417197227478, -0.06387452781200409, 0.21001774072647095, 0.018978342413902283, 0.037272121757268906, 0.22584758698940277, -0.05221707001328468, -0.13583926856517792, -0.06474466621875763, 0.06528878211975098, -0.22599785029888153, 0.092010997235775, -0.07776494324207306, 0.16567248106002808, -0.34558171033859253, -0.11353099346160889, -0.24342070519924164, -0.11925595253705978, 0.03574749454855919, -0.025869134813547134, -0.03657190129160881, -0.022976357489824295, 0.029356563463807106, -0.14556963741779327, 0.10202495753765106, 0.09564759582281113, 0.05557543784379959, 0.08032868057489395, 0.042784254997968674, 0.293737530708313, -0.012570960447192192, -0.044323645532131195, -0.10876233875751495, -0.14899428188800812, -0.1796240359544754, -0.12828683853149414, -0.0102018341422081, 0.0033429511822760105, 0.0005114205996505916, -0.00765535281971097, 0.12993045151233673, 0.10672502964735031, -0.023043248802423477, -0.09424033015966415, 0.07915875315666199, 0.02713165059685707, -0.20901916921138763, -0.009812104515731335, 0.03782161325216293, -0.12985976040363312, 0.027401532977819443, -0.20998553931713104, 0.013361860997974873, 0.012479499913752079, -0.0025251733604818583, 0.052460115402936935, -0.347842276096344, -0.16690440475940704, -0.04240333288908005, -0.1547490656375885, 0.10311424732208252, 0.28828492760658264, -0.16982971131801605, -0.12087742984294891, 0.033984046429395676, 0.23254458606243134, -0.17643453180789948, 0.03594526648521423, 0.2628818452358246, -0.23841089010238647, -0.18490640819072723, -0.06114234775304794, -0.07514046877622604, 0.11728889495134354, 0.03488057479262352, -0.25619369745254517, 0.07439308613538742, -0.08336056023836136, 0.18395061790943146, -0.09058445692062378, -0.09188750386238098, 0.0781056210398674, 0.11011895537376404, 0.06467757374048233, -0.24329501390457153, 0.07765857875347137, -0.14928950369358063, 0.03395918011665344, -0.2054983675479889, 0.06442105025053024, -0.11642252653837204, -0.18513236939907074, 0.10303106158971786, 0.034878380596637726, -0.08861991763114929, 0.20945961773395538, -0.06360270082950592, 0.0046343435533344746, 0.03881431370973587, -0.08944107592105865, 0.06800266355276108, -0.07699721306562424, -0.05941487476229668, 0.19668053090572357, -0.1501956582069397, -0.34825482964515686, 0.23251873254776, 0.3679637908935547, -0.05849558115005493, -0.019368380308151245, -0.0031048397067934275, -0.0028622294776141644, -0.02741314470767975, -0.16070371866226196, 0.08365244418382645, 0.0757061168551445, -0.21569886803627014, 0.10092035681009293, 0.29627954959869385, 0.02482033520936966, -0.04868869483470917, -0.020496398210525513, 0.08880466222763062, -0.2498009353876114, 0.0016439070459455252, -0.003904639510437846, 0.01847825013101101, -0.025139668956398964, 0.24073883891105652, -0.15931124985218048, 0.0847635567188263, 0.04610145837068558, -0.12543617188930511, 0.02560492418706417, 0.1750120222568512, -0.04673530533909798, -0.2442137748003006, -0.00253497576341033, -0.13025355339050293, -0.04941265657544136, -0.011776180006563663, -0.24618969857692719, -0.23320019245147705, 0.06958035379648209, -0.0754479467868805, -0.37018895149230957, 0.11328247934579849, 0.039313189685344696, -0.10303895175457001, -0.1900680661201477, 0.12063847482204437, 0.05042441934347153, 0.3438990116119385, 0.060649000108242035, 0.05596012994647026, -0.02409397065639496, 0.11789143830537796, 0.0902232751250267, 0.18067094683647156, -0.07524648308753967, -0.06284565478563309, -0.0691525861620903, 0.11414239555597305, 0.21627172827720642, -0.06622792035341263, -0.06131080538034439, 0.0453331433236599, -0.03547261655330658, 0.13741710782051086, -0.325016051530838, -0.11932459473609924, -0.11293207108974457, -0.33491453528404236, -0.13908922672271729, -0.13209140300750732, -0.029026957228779793, 0.16064278781414032, -0.035371460020542145, -0.14878514409065247, -0.008220680058002472, 0.15143516659736633, -0.009759588167071342, -0.009105748496949673, 0.005585489794611931, -0.03197598457336426, 0.09345636516809464, -0.001969744684174657, 0.10127642750740051, -0.14940065145492554, -0.0017442690441384912, -0.030410483479499817, -0.17549873888492584, -0.22566860914230347, 0.09897934645414352, -0.05065561458468437, -0.1475534439086914, -0.000961789395660162, 0.011280188336968422, -0.022807378321886063, -0.21602119505405426, -0.13320718705654144, 0.21090300381183624, 0.040787916630506516, 0.11075270175933838, -0.16456805169582367, -0.1615910828113556, 0.06463634222745895, 0.008411175571382046, 0.07920362800359726, -0.027087973430752754, 0.040146589279174805, 0.02282252348959446, 0.11226104944944382, 0.11648160964250565, -0.23380838334560394, -0.3243652880191803, 0.14458949863910675, 0.17143334448337555, -0.14731425046920776, -0.26844412088394165, 0.014294445514678955, 0.13435491919517517, 0.2594604194164276, 0.07452113926410675, -0.05365268513560295, -0.1289122998714447, 0.001652851584367454, -0.04319513961672783, -0.14651243388652802, 0.295712411403656, 0.25766685605049133, 0.16397450864315033, -0.13291330635547638, 0.12341140955686569, 0.09232211858034134, 0.0638759583234787, 0.1803736388683319, 0.09170792251825333, 0.10681185126304626, 0.09192950278520584, 0.0491890013217926, -0.25744208693504333, 0.012069663032889366, -0.0802793949842453, -0.18472912907600403, 0.24274931848049164, 0.24955898523330688, 0.1961866021156311, 0.036836884915828705, 0.19494594633579254, 0.0017397267511114478, 0.029271265491843224, -0.15782900154590607, 0.003969912882894278, 0.0006038593128323555, -0.013026521541178226, -0.007389666512608528, -0.011507971212267876, 0.2594555914402008, 0.12906858325004578, 0.0016520068747922778, 0.03590935468673706, 0.006381507031619549, -0.02928811125457287, -0.15623490512371063, -0.02180246077477932, -0.1076900064945221, -0.18046750128269196, 0.005112218204885721, 0.003912646789103746, -0.01786707527935505, -0.017708001658320427, 0.14371711015701294, 0.1528857797384262, 0.14806678891181946, 0.005616637412458658, -0.12197178602218628, -0.15641845762729645, 0.04973943531513214, 0.054744359105825424, 0.18581023812294006, 0.15876838564872742, -0.019085561856627464, -0.17958565056324005, -0.04605906829237938, 0.031354621052742004, -0.029168203473091125, -0.08341182768344879, 0.036500778049230576, -0.07274003326892853, -0.09065353125333786, 0.044954344630241394, -0.0580226294696331, 0.03523343428969383, 0.03943360224366188, -0.16446241736412048, -0.06946117430925369, 0.20752522349357605, -0.16773173213005066, -0.30551275610923767, -0.2687341868877411, 0.0042016590014100075, 0.0044625247828662395, -0.01697566546499729, 0.17525321245193481, -0.3857904076576233, 0.05714813247323036, 0.22537419199943542, -0.16278113424777985, -0.05482034757733345, -0.10867058485746384, -0.12908773124217987, -0.04709186404943466, 0.20603975653648376, 0.26520392298698425, -0.04848865047097206, 0.27497175335884094, 0.0051350221037864685, 0.2531234920024872, -0.013466499745845795, 0.018916567787528038, 0.05275169759988785, 0.45882800221443176, 0.1228724867105484, -0.10208484530448914, 0.009689978323876858, -0.003618325339630246, -0.004897501785308123, 0.13114531338214874, 0.004486818332225084, 0.04020896926522255, 0.0020185927860438824, 0.04858158901333809, 0.06133854389190674, -0.2795771062374115, 0.09621147811412811, -0.1417422890663147, -0.20817795395851135, -0.008430937305092812, 0.012121614068746567, -0.0069350614212453365, 0.008310318924486637, -0.01342175155878067, -0.058737270534038544, -0.08441931009292603, -0.00672429334372282, 0.040250591933727264, -0.1454768180847168, 0.10454119741916656, 0.00909360870718956, -0.27307891845703125, -0.2826983332633972, -0.0017781368223950267, -0.031893886625766754, -0.01492740772664547, -0.004038919694721699, 0.03255675733089447, 0.13678143918514252, -0.16037417948246002, -0.16915953159332275, -0.15780770778656006, 0.041701529175043106, 0.17969267070293427, -0.062258485704660416, -0.3610892593860626, -0.24595017731189728, -0.12023849040269852, -0.08050122857093811, -0.05894581973552704, 0.005568705499172211, -0.0449967086315155, 0.15145912766456604, -0.09757469594478607, -0.12446487694978714, 0.06911972910165787, -0.2216508388519287, 0.056247152388095856, 0.014802277088165283, -0.021281490102410316, 0.22924791276454926, -0.0898079127073288, 0.29737842082977295, -0.03253822773694992, -0.18432144820690155, 0.010092021897435188, -0.15534260869026184, -0.10850661247968674, 0.05730682238936424, 0.08019136637449265, -0.08980217576026917, 0.14251965284347534, 0.1670718491077423, 0.20731230080127716, 0.07641424238681793, 0.19679398834705353, -0.2714698612689972, -0.045885857194662094, -0.008670052513480186, 0.0011922585545107722, -0.005714492406696081, -0.02398281916975975, 0.27166855335235596, -0.02449694275856018, 0.05972577631473541, -0.033525191247463226, 0.01092827133834362, 0.0008684330387040973, 0.06471000611782074, 0.1681976616382599, 0.2377808392047882, 0.044689808040857315, 0.08509376645088196, -0.011508645489811897, -0.000878767401445657, 0.009402894414961338, 0.12499180436134338, 0.030543234199285507, 0.12793995440006256, 0.07083607465028763, 0.173249289393425, 0.04176539555191994, -0.051340628415346146, 0.0484745092689991, -0.42299485206604004, 0.05526479706168175, -0.5266030430793762, -0.24876052141189575, 0.06520718336105347, 0.06892542541027069, -0.16778214275836945, -0.10278307646512985, 0.19782055914402008, -0.06986372917890549, 0.32373765110969543, -0.00027710694121196866, 0.05889495089650154, 0.23337571322917938, 0.01891213469207287, -0.14467589557170868, -0.015837794169783592, -0.005139966960996389, -0.1969834864139557, -0.03692618012428284, -0.10712619870901108, 0.13341954350471497, 0.00499579356983304, -0.040818050503730774, -0.015326041728258133, 0.03220488876104355, 0.089029461145401, -0.14429603517055511, -0.1503402292728424, 0.15944671630859375, -0.05951569974422455, -0.20450353622436523, 0.06405884772539139, 0.06688167154788971, -0.22093971073627472, 0.03312283381819725, 0.10617227107286453, 0.05403802916407585, 0.09121867269277573, -0.2026887834072113, 0.047781530767679214, -0.04367940127849579, -0.06968475878238678, 0.12565387785434723, 0.21351487934589386, 0.258994996547699, 0.013148078694939613, -0.0010973417665809393, 0.0035272017121315002, 0.11068134754896164, 0.017490530386567116, 0.018874185159802437, 0.11889852583408356, -0.008556713350117207, -0.10526350140571594, -0.059824034571647644, 0.09149707853794098, 0.00043204438406974077, 0.04910508170723915, 0.09671761095523834, -0.054103706032037735, 0.007562481798231602, 0.0037884260527789593, -0.012348131276667118, 0.20817875862121582, -0.0722762793302536, -0.23889243602752686, -0.15083906054496765, -0.1473751813173294, 0.007530570030212402, -0.03952691704034805, -0.04861750826239586, 0.08944627642631531, 0.04905678331851959, 0.04561758041381836, 0.05915364250540733, 0.0889313817024231, -0.3042568564414978, -0.0526021309196949, -0.31468620896339417, 0.0052048019133508205, -0.0006687119603157043, 0.15090958774089813, 0.17142026126384735, 0.029268058016896248, -0.07222089916467667, 0.07002697139978409, -0.07619834691286087, -0.00020101192058064044, 0.14233651757240295, -0.08050736039876938, 0.11628969758749008, 0.09777446836233139, -0.13781233131885529, 0.1405695080757141, 0.10082937031984329, 0.014711734838783741, -0.11003191024065018, -0.1240157037973404, -0.07760490477085114, 0.07831676304340363, -0.13793261349201202, 0.06314945220947266, -0.17923197150230408, -0.029454762116074562, 0.015826290473341942, 0.3529241383075714, -0.19879838824272156, 0.2124669998884201, 0.021627889946103096, 0.05934755504131317, 0.017082050442695618, 0.06419079005718231, -0.022182533517479897, 0.20987406373023987, -0.06588593125343323, 0.16342398524284363, -0.09300637990236282, -0.008696604520082474, -0.15472446382045746, 0.06567701697349548, 0.2085859626531601, -0.011165402829647064, -0.028418002650141716, -0.16088110208511353, -0.03309554234147072, -0.2299000471830368, -0.13176259398460388, 0.032733745872974396, 0.1903831511735916, 0.4054746627807617, -0.08466626703739166, 0.20716772973537445, 0.035182639956474304, -0.021830717101693153, 0.062439631670713425, 0.008936874568462372, 0.015934251248836517, -0.058937814086675644, -0.20179975032806396, -0.22280310094356537, 0.09428777545690536, -0.039938218891620636, -0.0860380232334137, 0.0012276815250515938, 0.1147385910153389, 0.026033293455839157, -0.0946933701634407, 0.17700013518333435, 0.227935791015625, 0.07138310372829437, 0.14053621888160706, 0.1792614907026291, 0.16311578452587128, 0.0886375829577446, 0.08636395633220673, 0.07500654458999634, -0.15838705003261566, 0.10114067792892456, -0.19569489359855652, -0.11469054967164993, 0.18815341591835022, 0.12127533555030823, 0.21468745172023773, -0.03921281918883324, -0.1663127988576889, -0.034704118967056274, 0.01472694892436266, 0.01140103954821825, 0.16363267600536346, -0.052144892513751984, 0.050811801105737686, -0.14269603788852692, 0.06499770283699036, 0.0004486805701162666, -0.1082262322306633, -0.03403903543949127, -0.026583479717373848, -0.038993533700704575, 0.25567108392715454, -0.014209456741809845, -0.035203371196985245, -0.3027409613132477, -0.12906771898269653, -0.0379713773727417, -0.09899430721998215, 0.19943231344223022, -0.02380671724677086, 0.18597090244293213, 0.008906296454370022, 0.005373375490307808, -0.012816662900149822, 0.0005479417159222066, 0.24808669090270996, -0.33480697870254517, -0.288898229598999, -0.07839995622634888, 0.002096919110044837, 0.09960799664258957, 0.004730871878564358, -0.003842459060251713, 0.010190436616539955, 0.1486959010362625, 0.026566458866000175, 0.13894765079021454, 0.03935295343399048, -0.08104309439659119, 0.10072118788957596, 0.015965629369020462, 0.00019339022401254624, 0.21260254085063934, -0.35375291109085083, -0.20462508499622345, -0.17133885622024536, -0.0036326064728200436, -0.0025460817851126194, -0.015073256567120552, -0.14219531416893005, -0.12425179034471512, 0.35469862818717957, 0.26005905866622925, -0.05943090841174126, -0.05247872695326805, -0.16587330400943756, -0.27541491389274597, -0.016870202496647835, -0.14402753114700317, -0.012247119098901749, -0.23096981644630432, -0.10998153686523438, 0.02145247347652912, 0.05285780131816864, 0.06025688722729683, -0.19059616327285767, 0.12336325645446777, -0.11550060659646988, 0.0913451686501503, -0.0015355607029050589, -0.19866442680358887, -0.04563920572400093, 0.05273571237921715, 0.08847393095493317, -0.02034985087811947, 0.22109323740005493, 0.14542165398597717, -0.03704483062028885, 0.10827075690031052, 0.2791190445423126, 0.28297159075737, -0.17724651098251343, -0.13373354077339172, 0.2143295705318451, -0.15274971723556519, -0.19089236855506897, -0.07017607986927032, 0.06065450236201286, -0.014779691584408283, -0.09390076994895935, -0.09731418639421463, -0.10281699895858765, -0.12694628536701202, 0.3293253481388092, 0.042942024767398834, 0.127992644906044, -0.0705922544002533, -0.026840534061193466, -0.10299264639616013, -0.38274112343788147, -0.19889850914478302, -0.26134029030799866, -0.3247283101081848, -0.17253521084785461, 0.19124087691307068, -0.006413808558136225, 0.18627683818340302, 0.059320226311683655, 0.11295263469219208, -0.13003328442573547, 0.07562580704689026, 0.10518083721399307, -0.0832318663597107, 0.08076269924640656, 0.08172216266393661, -0.07932108640670776, -0.16205766797065735, -0.1709142029285431, 0.01248599961400032, 0.047199808061122894, -0.1143912523984909, 0.0038372634444385767, 0.08234992623329163, 0.08922814577817917, 0.22399459779262543, 0.18431630730628967, -0.1445239633321762, 0.24300473928451538, -0.07663985341787338, 0.15081439912319183, 0.009813024662435055, -0.05948863923549652, -0.2609185576438904, -0.024763204157352448, -0.2250775843858719, 0.13961762189865112, 0.21893015503883362, -0.11502419412136078, 0.04358572140336037, -0.10470125079154968, -0.09071395546197891, 0.11178868263959885, -0.005562519188970327, 0.25109657645225525, -0.06960426270961761, 0.14424178004264832, 0.01406041532754898, 0.1148606613278389, -0.06454164534807205, -0.007153201848268509, -0.016670826822519302, -0.12067445367574692, 0.09556324034929276, 0.0938553586602211, 0.08567224442958832, 0.22184188663959503, 0.20919489860534668, -0.054118603467941284, 0.05384546518325806, -0.09000900387763977, 0.003371049417182803, -0.08656637370586395, 0.23383700847625732, 0.05249530449509621, -0.03146979212760925, 0.17228400707244873, -0.31330135464668274, -0.2907106578350067, 0.11486941576004028, 0.008727869018912315, 0.036148808896541595, -0.19144879281520844, -0.0033534972462803125, 0.2891816794872284, 0.11896296590566635, 0.02449502982199192, -0.06337197124958038, -0.05695168673992157, -0.30732324719429016, 0.03718719258904457, 0.12203497439622879, -0.22742106020450592, -0.09546730667352676, -0.16706563532352448, -0.009653512388467789, 0.0005348162958398461, -0.020844021812081337, 0.08866230398416519, 0.10880960524082184, -0.036243535578250885, -0.35805943608283997, -0.1438206434249878, 0.1779540628194809, -0.4009689390659332, -0.05016068369150162, -0.17031843960285187, 0.11612971872091293, -0.09744430333375931, 0.05830574035644531, 0.00565460417419672, 0.01836225762963295, -0.0020294194109737873, 0.05427733063697815, -0.21434929966926575, 0.17182140052318573, -0.10976999998092651, -0.08093789219856262, -0.0032111925538629293, -0.22558292746543884, 0.03302010893821716, 0.13964173197746277, 0.04228135570883751, -0.22933760285377502, -0.017870333045721054, 0.1071026474237442, -0.2710643410682678, -0.1551291048526764, 0.12651817500591278, 0.03898491710424423, 0.05946297571063042, 0.26839494705200195, 0.06762976944446564, 0.09495795518159866, 0.391262412071228, -0.03086002916097641, -0.11516445875167847, 0.06174709275364876, 0.06336289644241333, -0.07602481544017792, -0.1490136682987213, 0.3333973288536072, 0.04717579111456871, -0.10569629073143005, 0.1322031468153, -0.015753746032714844, -0.036500293761491776, 0.08115709573030472, -0.18646714091300964, 0.050897352397441864, 0.2761112451553345, 0.06728695333003998, -0.05430154129862785, -0.07319433987140656, -0.05922747403383255, -0.03665635362267494, -0.05453167483210564, 0.13225816190242767, -0.25016719102859497, 0.12441898882389069, -0.0548030287027359, 0.05440772697329521, -0.1626666933298111, 0.19177137315273285, 0.17979192733764648, 0.1385049670934677, -0.21863602101802826, 0.008291210979223251, 0.004048550967127085, -0.016052711755037308, -0.003507025307044387, 0.052616022527217865, 0.08026254922151566, 0.0255854744464159, 0.04203563556075096, 0.21269747614860535, 0.176962748169899, -0.4138237237930298, -0.04581831023097038, -0.023765329271554947, -0.2528936564922333, 0.013594153337180614, 0.012487577274441719, -0.010865679010748863, 0.003364009317010641, -0.13218773901462555, -0.09698214381933212, 0.21324340999126434, -0.07831147313117981, 0.06671462953090668, -0.2700870633125305, 0.26880237460136414, 0.08698538690805435, -0.02634158357977867, 0.08307298272848129, -0.20348989963531494, 0.1706836074590683, -0.04676317423582077, -0.029454898089170456, -0.07096437364816666, -0.08380980789661407, 0.10026706755161285, 0.03693697229027748, 0.09407173842191696, -0.0012694040779024363, 0.07407401502132416, -0.06045560911297798, 0.3218340575695038, -0.22631126642227173, 0.18200062215328217, 0.19744043052196503, -0.12299852818250656, 0.3217679262161255, 0.14368665218353271, 0.1401718407869339, 0.004044654313474894, -0.031353894621133804, -0.030225560069084167, 0.05636823549866676, 0.20224381983280182, 0.026170453056693077, -0.13155555725097656, 0.1189957931637764, 0.13295665383338928, 0.09449196606874466, 0.10760349780321121, -0.03910510614514351, -0.13408803939819336, -0.1253129243850708, -0.2360587865114212, 0.03420058637857437, -0.012044793926179409, -0.06350675225257874, -0.42660683393478394, -0.18003477156162262, 0.16177941858768463, -0.09593050181865692, 0.05204692482948303, -0.2007281482219696, 0.014387054368853569, -0.001440276624634862, 0.0029004039242863655, 0.33569738268852234, 0.21887928247451782, -0.04424893483519554, -0.08562395721673965, -0.04698837548494339, 0.07359747588634491, -0.015187795273959637, -0.057048577815294266, 0.21176937222480774, -0.016484778374433517, 0.3319171071052551, 0.013097560964524746, 0.017853183671832085, 0.003573194146156311, 0.00962960533797741, -0.1045885980129242, -0.12322952598333359, 0.06635283678770065, 0.14268536865711212, 0.005810525733977556, -0.18567489087581635, -0.19633638858795166, -0.20598939061164856, -0.2551342844963074, 0.01580285094678402, 0.16238610446453094, -0.0019364020554348826, -0.32626277208328247, -0.02753389999270439, -0.023498011752963066, 0.302531361579895, -0.21031974256038666, -0.0563894547522068, 0.24621862173080444, 0.06494878232479095, 0.08130723983049393, 0.016538839787244797, 0.047623246908187866, 0.11223826557397842, -0.11683928966522217, 0.1267368346452713, -0.19817592203617096, 0.04739583283662796, 0.025799036026000977, -0.08895424753427505, -0.003274337388575077, -0.08985593169927597, -0.15468676388263702, -0.05103989318013191, -0.1593470275402069, 0.04659179970622063, -0.16600054502487183, 0.1027650311589241, -0.17053180932998657, -0.08173763006925583, -0.09015373885631561, 0.1912684589624405, 0.04767324775457382, -0.030561141669750214, 0.0719839483499527, -0.30414700508117676, -0.006225797347724438, 0.2883163392543793, 0.01910257339477539, 0.009802421554923058, 0.07911551743745804, 0.12926948070526123, -0.2883094847202301, -0.24282291531562805, 0.0021029128693044186, -0.007148765493184328, 0.013120252639055252, -0.04549150541424751, -0.2792254686355591, -0.18302203714847565, -0.3968815505504608, -0.03379311040043831, -0.027190906926989555, -0.061265915632247925, 0.15572278201580048, 0.17299143970012665, -0.024593450129032135, -0.30811649560928345, 0.08909691870212555, 0.0055536022409796715, 0.003093915758654475, 0.009814797900617123, -0.16812846064567566, 0.28993886709213257, -0.13848146796226501, 0.10814101248979568, -0.24354766309261322, -0.13427214324474335, 0.21886895596981049, -0.03765764459967613, 0.12123238295316696, 0.03420156612992287, -0.015149405226111412, 0.1968548446893692, -0.03415875881910324, -0.25702741742134094, -0.1159377172589302, 0.07955767214298248, 0.057086821645498276, -0.2261853814125061, -0.104549840092659, -0.08396424353122711, -0.05275099352002144, -0.1985960155725479, -0.09069755673408508, -0.10516586154699326, 0.11136123538017273, 0.11678659915924072, -0.021045926958322525, -0.056586071848869324, 0.02019633539021015, -0.11786246299743652, -0.1655309498310089, -0.1357092410326004, -0.09162738919258118, -0.16793297231197357, 0.023391282185912132, 0.10532538592815399, -0.22907790541648865, 0.0036270171403884888, -0.03174499794840813, 0.049292534589767456, -0.001867550308816135, -0.20980899035930634, -0.18221020698547363, 0.004246927332133055, 0.1484917402267456, -0.31959041953086853, 0.049901332706213, 0.1717071533203125, -0.022087382152676582, 0.07941488921642303, -0.10147928446531296, -0.017229026183485985, -0.23395872116088867, -0.33837682008743286, 0.009427658282220364, -0.00984994973987341, -0.004555278457701206, -0.20011569559574127, -0.20351159572601318, -0.02509131096303463, -0.10530539602041245, 0.054555416107177734, 0.06531829386949539, 0.046310655772686005, 0.03443905711174011, 0.22773122787475586, -0.1540938913822174, -0.007929164916276932, 0.1634896993637085, 0.012645398266613483, -0.014217636547982693, -0.003123554401099682, 0.19602788984775543, 0.07333490252494812, 0.028183791786432266, -0.03142007812857628, -0.05539689213037491, 0.04160083830356598, -0.03642706573009491, -0.006145694758743048, 0.011344745755195618, -0.09787119179964066, 0.07680626213550568, 0.4206349849700928, -0.2564859390258789, 0.04676717892289162, -0.10972398519515991, 0.08334088325500488, 0.006719992496073246, 0.1099642664194107, 0.1696697622537613, 0.027773596346378326, 0.1633976697921753, -0.33837026357650757, 0.22956201434135437, 0.054135557264089584, 0.1555732935667038, -0.17607389390468597, -0.1199113056063652, 0.021064378321170807, -0.0024592075496912003, 0.040857430547475815, 0.1565362811088562, -0.2547875940799713, 0.14055867493152618, 0.001195390708744526, -0.02941337786614895, -0.2123371958732605, 0.0726088210940361, -0.34844645857810974, 0.09358761459589005, -0.215366929769516, 0.007715985178947449, -0.017200540751218796, 0.16880829632282257, -0.02578665316104889, -0.10019027441740036, -0.0731218010187149, 0.1837248057126999, 0.07740779966115952, -0.05566089227795601, -0.0341280996799469, -0.22620253264904022, 0.05607141926884651, -0.2540075182914734, 0.10851247608661652, 0.0012862159637734294, 0.02386951819062233, -0.011001355946063995, -0.014817996881902218, 0.2595604658126831, 0.17196227610111237, -0.1004895567893982, 0.03232691437005997, 0.0002885822323150933, 0.040696825832128525, -0.1008458361029625, -0.012892290018498898, -0.23065899312496185, 0.019503390416502953, 0.06495489180088043, -0.002274194033816457, -0.01615050807595253, 0.009885318577289581, 0.05261465534567833, -0.10479125380516052, -0.0405011847615242, -0.21660296618938446, -0.14800520241260529, -0.07762638479471207, 0.17730727791786194, -0.09230436384677887, 0.09240688383579254, -0.07769925147294998, 0.035788148641586304, -0.02040868252515793, 0.1260148584842682, -0.07719336450099945, -0.22697490453720093, -0.19946716725826263, -0.07676990330219269, -0.18028627336025238, 0.059209004044532776, -0.06722784042358398, 0.34274494647979736, -0.25081750750541687, 0.02939191833138466, -0.16280598938465118, -0.07121635228395462, 0.0204121433198452, -0.3356384336948395, 0.03418290615081787, 0.27466103434562683, -0.06544817984104156, 0.037500035017728806, 0.1479347050189972, -0.023664649575948715, -0.08385437726974487, -0.3284742534160614, 0.09251903742551804, -0.016334453597664833, -0.1461683213710785, 0.018272660672664642, -0.08424700051546097, -0.07627174258232117, 0.0875105932354927, -0.19317886233329773, 0.15116694569587708, -0.2017386257648468, -0.09565270692110062, 0.27755337953567505, 0.16271963715553284, 0.014087922871112823, -0.1357538402080536, -0.07639387995004654, 0.010576380416750908, 0.005416011903434992, -0.013116088695824146, -0.0003083251358475536, -0.0021437511313706636, -0.01441978756338358, -0.07455190271139145, 0.13201461732387543, -0.1975020468235016, -0.0273599810898304, -0.11832128465175629, 0.016072049736976624, -0.05609436705708504, 0.21324340999126434, 0.07311897724866867, -0.18934248387813568, 0.09688341617584229, -0.11181136220693588, -0.005769963841885328, 0.003138190135359764, -0.004917473997920752, 0.12887263298034668, -0.11179089546203613, -0.08933723717927933, -0.09473897516727448, -0.08164291828870773, 0.15865463018417358, 0.09075892716646194, 0.24680915474891663, 0.32730624079704285, -0.14877118170261383, 0.010164125822484493, -0.16976989805698395, -0.11223775148391724, -0.0909445732831955, -0.1525871604681015, -0.15182684361934662, -0.02082565613090992, -0.17561817169189453, 0.1215505599975586, -0.13246631622314453, 0.405526340007782, -0.06515173614025116, 0.010394851677119732, -0.18696638941764832, 0.2462531328201294, 0.1615860015153885, 0.042856115847826004, -0.19439420104026794, 0.030407143756747246, -0.16186462342739105, 0.21107280254364014, 0.11679720133543015, 0.013775439001619816, -0.3516605496406555, -0.14194387197494507, 0.09926977008581161, 0.17506468296051025, 0.16009487211704254, -0.22978729009628296, 0.0435253269970417, 0.14657700061798096, -0.23936012387275696, -0.0011409184662625194, 0.039525747299194336, -0.043411627411842346, -0.26733654737472534, -0.047010473906993866, -0.04724247008562088, -0.021372411400079727, -0.08133009821176529, -0.0639432966709137, -0.005731108132749796, 0.06386282294988632, -0.043940220028162, -0.0040964893996715546, 0.0009235403849743307, -0.019209159538149834, 0.06885408610105515, -8.127606997732073e-05, 0.005729266908019781, 0.13867005705833435, -0.28186464309692383, -0.2848983705043793, 0.039520181715488434, -0.0010272295912727714, 0.024562925100326538, -0.06670229882001877, 0.09589119255542755, 0.13461482524871826, 0.004839823115617037, -0.0026082845870405436, -0.02107689343392849, 0.11102968454360962, 0.17634133994579315, 0.09303399175405502, -0.1269654482603073, 0.09725384414196014, 0.12420676648616791, 0.22499574720859528, -0.12645557522773743, -0.03268590569496155, 0.10785943269729614, 0.00828643050044775, -0.1612723469734192, 0.05984470620751381, 0.08352261036634445, 0.012696350924670696, 0.03169435262680054, -0.037340980023145676, 0.2133711874485016, -0.13000372052192688, -0.08477245271205902, 0.0015856223180890083, 0.12686608731746674, -0.2161272019147873, -0.18912504613399506, -0.29412078857421875, 0.004719149321317673, -0.1614135354757309, -0.05550502613186836, 0.09546171873807907, -0.09259871393442154, 0.033382683992385864, -0.04320570454001427, 0.09701134264469147, 0.06857883185148239, -0.09987202286720276, -0.02434278465807438, 0.15065138041973114, 0.05677906051278114, -0.20163410902023315, 0.09463031589984894, -0.1565500646829605, 0.20387870073318481, 0.14781592786312103, 0.04184136539697647, 0.022694606333971024, -0.030171208083629608, 0.09793649613857269, -0.05351721867918968, 0.0023556987289339304, 0.01], "sample_rate": 48000, "metadata": {"name": "synthetic A2 ch=3 seed=42", "input_level_dbu": 14.5, "loudness": -7.3}}